digraph Tree {
node [shape=box, style="filled, rounded", color="black", fontname=helvetica] ;
edge [fontname=helvetica] ;
0 [label="연령 <= 26.999\ngini = 0.5\nsamples = 28785\nvalue = [22546, 22938]\nclass = 미취업", fillcolor="#fcfdff"] ;
1 [label="석사/박사 재학여부 <= 0.5\ngini = 0.498\nsamples = 21596\nvalue = [18155, 15948]\nclass = 취업", fillcolor="#fcf0e7"] ;
0 -> 1 [labeldistance=2.5, labelangle=45, headlabel="True"] ;
2 [label="GPA <= 84.44\ngini = 0.495\nsamples = 20436\nvalue = [17751, 14486]\nclass = 취업", fillcolor="#fae8db"] ;
1 -> 2 ;
3 [label="재학중 일자리 경험 <= 1.5\ngini = 0.484\nsamples = 12278\nvalue = [11461, 7956]\nclass = 취업", fillcolor="#f7d8c2"] ;
2 -> 3 ;
4 [label="(...)", fillcolor="#C0C0C0"] ;
3 -> 4 ;
1229 [label="(...)", fillcolor="#C0C0C0"] ;
3 -> 1229 ;
1940 [label="GPA <= 84.447\ngini = 0.5\nsamples = 8158\nvalue = [6290, 6530]\nclass = 미취업", fillcolor="#f8fbfe"] ;
2 -> 1940 ;
1941 [label="(...)", fillcolor="#C0C0C0"] ;
1940 -> 1941 ;
2430 [label="(...)", fillcolor="#C0C0C0"] ;
1940 -> 2430 ;
3429 [label="국공사립 <= 2.5\ngini = 0.339\nsamples = 1160\nvalue = [404, 1462]\nclass = 미취업", fillcolor="#70b8ec"] ;
1 -> 3429 ;
3430 [label="국공사립 <= 1.5\ngini = 0.459\nsamples = 385\nvalue = [216, 390]\nclass = 미취업", fillcolor="#a7d3f3"] ;
3429 -> 3430 ;
3431 [label="(...)", fillcolor="#C0C0C0"] ;
3430 -> 3431 ;
3526 [label="(...)", fillcolor="#C0C0C0"] ;
3430 -> 3526 ;
3535 [label="어머니 학력 <= 5.5\ngini = 0.254\nsamples = 775\nvalue = [188, 1072]\nclass = 미취업", fillcolor="#5caeea"] ;
3429 -> 3535 ;
3536 [label="(...)", fillcolor="#C0C0C0"] ;
3535 -> 3536 ;
3607 [label="(...)", fillcolor="#C0C0C0"] ;
3535 -> 3607 ;
3648 [label="아버지 학력 <= 5.5\ngini = 0.474\nsamples = 7189\nvalue = [4391, 6990]\nclass = 미취업", fillcolor="#b5dbf5"] ;
0 -> 3648 [labeldistance=2.5, labelangle=-45, headlabel="False"] ;
3649 [label="구직기간(통합) <= 0.5\ngini = 0.493\nsamples = 4188\nvalue = [2910, 3696]\nclass = 미취업", fillcolor="#d5eaf9"] ;
3648 -> 3649 ;
3650 [label="국공사립 <= 2.5\ngini = 0.498\nsamples = 1882\nvalue = [1571, 1364]\nclass = 취업", fillcolor="#fceee5"] ;
3649 -> 3650 ;
3651 [label="(...)", fillcolor="#C0C0C0"] ;
3650 -> 3651 ;
3808 [label="(...)", fillcolor="#C0C0C0"] ;
3650 -> 3808 ;
4149 [label="GPA <= 84.434\ngini = 0.463\nsamples = 2306\nvalue = [1339, 2332]\nclass = 미취업", fillcolor="#abd5f4"] ;
3649 -> 4149 ;
4150 [label="(...)", fillcolor="#C0C0C0"] ;
4149 -> 4150 ;
4551 [label="(...)", fillcolor="#C0C0C0"] ;
4149 -> 4551 ;
4716 [label="부모님 소득 <= 5.5\ngini = 0.428\nsamples = 3001\nvalue = [1481, 3294]\nclass = 미취업", fillcolor="#92c9f1"] ;
3648 -> 4716 ;
4717 [label="대학 입학 구분 <= 1.5\ngini = 0.459\nsamples = 1933\nvalue = [1096, 1973]\nclass = 미취업", fillcolor="#a7d3f3"] ;
4716 -> 4717 ;
4718 [label="(...)", fillcolor="#C0C0C0"] ;
4717 -> 4718 ;
5121 [label="(...)", fillcolor="#C0C0C0"] ;
4717 -> 5121 ;
5146 [label="구직기간(통합) <= 0.5\ngini = 0.349\nsamples = 1068\nvalue = [385, 1321]\nclass = 미취업", fillcolor="#73baed"] ;
4716 -> 5146 ;
5147 [label="(...)", fillcolor="#C0C0C0"] ;
5146 -> 5147 ;
5278 [label="(...)", fillcolor="#C0C0C0"] ;
5146 -> 5278 ;
}